<?xml version="1.0"?>
<opencv_storage>
<cascade>
  <stageType>BOOST</stageType>
  <featureType>HAAR</featureType>
  <height>24</height>
  <width>24</width>
  <stageParams>
    <boostType>GAB</boostType>
    <minHitRate>9.9500000476837158e-01</minHitRate>
    <maxFalseAlarm>5.0000000000000000e-01</maxFalseAlarm>
    <weightTrimRate>9.4999999999999996e-01</weightTrimRate>
    <maxDepth>1</maxDepth>
    <maxWeakCount>100</maxWeakCount></stageParams>
  <featureParams>
    <maxCatCount>0</maxCatCount>
    <featSize>1</featSize>
    <mode>BASIC</mode></featureParams>
  <stageNum>16</stageNum>
  <stages>
    <!-- stage 0 -->
    <_>
      <maxWeakCount>6</maxWeakCount>
      <stageThreshold>-3.7621846795082092e-01</stageThreshold>
      <weakClassifiers>
        <_>
          <internalNodes>
            0 -1 47 -5.3412314504384995e-02</internalNodes>
          <leafValues>
            8.1578946113586426e-01 -3.9130434393882751e-01</leafValues></_>
        <_>
          <internalNodes>
            0 -1 31 -4.0769364684820175e-02</internalNodes>
          <leafValues>
            7.5843101739883423e-01 -1.8581053614616394e-01</leafValues></_>
        <_>
          <internalNodes>
            0 -1 76 -3.4864116460084915e-02</internalNodes>
          <leafValues>
            9.6783471107482910e-01 -1.8753156065940857e-01</leafValues></_>
        <_>
          <internalNodes>
            0 -1 82 -1.5573146520182490e-03</internalNodes>
          <leafValues>
            -6.5831822156906128e-01 2.8774404525756836e-01</leafValues></_>
        <_>
          <internalNodes>
            0 -1 41 -1.4476490905508399e-03</internalNodes>
          <leafValues>
            4.1743841767311096e-01 -4.5010209083557129e-01</leafValues></_>
        <_>
          <internalNodes>
            0 -1 48 1.9438054878264666e-03</internalNodes>
          <leafValues>
            -3.0327615141868591e-01 6.2930780649185181e-01</leafValues></_></weakClassifiers></_>
    <!-- stage 1 -->
    <_>
      <maxWeakCount>6</maxWeakCount>
      <stageThreshold>-3.6521396040916443e-01</stageThreshold>
      <weakClassifiers>
        <_>
          <internalNodes>
            0 -1 85 1.4774367213249207e-02</internalNodes>
          <leafValues>
            -3.4999999403953552e-01 7.1428573131561279e-01</leafValues></_>
        <_>
          <internalNodes>
            0 -1 72 2.9829338192939758e-02</internalNodes>
          <leafValues>
            -2.8864765167236328e-01 6.0354095697402954e-01</leafValues></_>
        <_>
          <internalNodes>
            0 -1 66 8.2025360316038132e-03</internalNodes>
          <leafValues>
            -2.5647616386413574e-01 6.7084580659866333e-01</leafValues></_>
        <_>
          <internalNodes>
            0 -1 53 1.4726523659192026e-04</internalNodes>
          <leafValues>
            -4.4944706559181213e-01 5.4602080583572388e-01</leafValues></_>
        <_>
          <internalNodes>
            0 -1 28 6.5432130359113216e-03</internalNodes>
          <leafValues>
            -2.1538741886615753e-01 8.1302446126937866e-01</leafValues></_>
        <_>
          <internalNodes>
            0 -1 20 -3.0985008925199509e-04</internalNodes>
          <leafValues>
            -7.9686331748962402e-01 3.1014016270637512e-01</leafValues></_></weakClassifiers></_>
    <!-- stage 2 -->
    <_>
      <maxWeakCount>8</maxWeakCount>
      <stageThreshold>-9.2936921119689941e-01</stageThreshold>
      <weakClassifiers>
        <_>
          <internalNodes>
            0 -1 54 1.3748081400990486e-02</internalNodes>
          <leafValues>
            -3.4640523791313171e-01 6.1904764175415039e-01</leafValues></_>
        <_>
          <internalNodes>
            0 -1 38 2.2965479642152786e-02</internalNodes>
          <leafValues>
            -3.2328438758850098e-01 5.4802948236465454e-01</leafValues></_>
        <_>
          <internalNodes>
            0 -1 56 9.8713636398315430e-03</internalNodes>
          <leafValues>
            -2.3194940388202667e-01 7.2901117801666260e-01</leafValues></_>
        <_>
          <internalNodes>
            0 -1 84 8.9482292532920837e-03</internalNodes>
          <leafValues>
            -2.3231349885463715e-01 7.5878512859344482e-01</leafValues></_>
        <_>
          <internalNodes>
            0 -1 43 2.2927644022274762e-04</internalNodes>
          <leafValues>
            -4.0485522150993347e-01 3.9885628223419189e-01</leafValues></_>
        <_>
          <internalNodes>
            0 -1 81 1.0717529803514481e-03</internalNodes>
          <leafValues>
            -2.5095325708389282e-01 6.0137635469436646e-01</leafValues></_>
        <_>
          <internalNodes>
            0 -1 40 -2.8123313095420599e-03</internalNodes>
          <leafValues>
            -6.0718494653701782e-01 2.7649608254432678e-01</leafValues></_>
        <_>
          <internalNodes>
            0 -1 42 -3.5123605630360544e-04</internalNodes>
          <leafValues>
            4.3110740184783936e-01 -4.0720292925834656e-01</leafValues></_></weakClassifiers></_>
    <!-- stage 3 -->
    <_>
      <maxWeakCount>6</maxWeakCount>
      <stageThreshold>-8.9715361595153809e-01</stageThreshold>
      <weakClassifiers>
        <_>
          <internalNodes>
            0 -1 99 1.4511548215523362e-03</internalNodes>
          <leafValues>
            4.1538462042808533e-01 -5.1401871442794800e-01</leafValues></_>
        <_>
          <internalNodes>
            0 -1 97 6.3973515352699906e-05</internalNodes>
          <leafValues>
            -4.9036261439323425e-01 4.1136750578880310e-01</leafValues></_>
        <_>
          <internalNodes>
            0 -1 8 -3.7638015783159062e-05</internalNodes>
          <leafValues>
            4.1338419914245605e-01 -4.2564931511878967e-01</leafValues></_>
        <_>
          <internalNodes>
            0 -1 17 1.0308804921805859e-02</internalNodes>
          <leafValues>
            -2.6288214325904846e-01 6.1976271867752075e-01</leafValues></_>
        <_>
          <internalNodes>
            0 -1 6 -6.1903069727122784e-03</internalNodes>
          <leafValues>
            5.6068241596221924e-01 -4.0975886583328247e-01</leafValues></_>
        <_>
          <internalNodes>
            0 -1 25 1.8847227096557617e-02</internalNodes>
          <leafValues>
            2.7611470222473145e-01 -7.4484783411026001e-01</leafValues></_></weakClassifiers></_>
    <!-- stage 4 -->
    <_>
      <maxWeakCount>5</maxWeakCount>
      <stageThreshold>-2.7640107274055481e-01</stageThreshold>
      <weakClassifiers>
        <_>
          <internalNodes>
            0 -1 79 6.0042813420295715e-03</internalNodes>
          <leafValues>
            -4.6969696879386902e-01 5.8095240592956543e-01</leafValues></_>
        <_>
          <internalNodes>
            0 -1 57 -6.6553384065628052e-02</internalNodes>
          <leafValues>
            4.9745434522628784e-01 -4.6455860137939453e-01</leafValues></_>
        <_>
          <internalNodes>
            0 -1 90 -1.0464049410074949e-03</internalNodes>
          <leafValues>
            6.9703006744384766e-01 -3.5088959336280823e-01</leafValues></_>
        <_>
          <internalNodes>
            0 -1 33 -1.4267334714531898e-02</internalNodes>
          <leafValues>
            7.7235931158065796e-01 -3.0256104469299316e-01</leafValues></_>
        <_>
          <internalNodes>
            0 -1 60 2.8175576590001583e-03</internalNodes>
          <leafValues>
            3.4929215908050537e-01 -7.7988123893737793e-01</leafValues></_></weakClassifiers></_>
    <!-- stage 5 -->
    <_>
      <maxWeakCount>10</maxWeakCount>
      <stageThreshold>-5.7041931152343750e-01</stageThreshold>
      <weakClassifiers>
        <_>
          <internalNodes>
            0 -1 7 -9.2968389391899109e-02</internalNodes>
          <leafValues>
            7.9411762952804565e-01 -3.2544377446174622e-01</leafValues></_>
        <_>
          <internalNodes>
            0 -1 46 3.1021817121654749e-03</internalNodes>
          <leafValues>
            -3.3781331777572632e-01 5.4569751024246216e-01</leafValues></_>
        <_>
          <internalNodes>
            0 -1 58 4.3500671163201332e-03</internalNodes>
          <leafValues>
            -2.5920855998992920e-01 6.3249540328979492e-01</leafValues></_>
        <_>
          <internalNodes>
            0 -1 27 -2.8015017509460449e-02</internalNodes>
          <leafValues>
            9.3350911140441895e-01 -1.7137749493122101e-01</leafValues></_>
        <_>
          <internalNodes>
            0 -1 83 7.6937011908739805e-04</internalNodes>
          <leafValues>
            3.0881589651107788e-01 -7.1861022710800171e-01</leafValues></_>
        <_>
          <internalNodes>
            0 -1 52 -8.1370249390602112e-03</internalNodes>
          <leafValues>
            1. -1.5917097032070160e-01</leafValues></_>
        <_>
          <internalNodes>
            0 -1 9 1.4750896953046322e-03</internalNodes>
          <leafValues>
            -2.4876590073108673e-01 6.6731601953506470e-01</leafValues></_>
        <_>
          <internalNodes>
            0 -1 36 -5.3321444429457188e-03</internalNodes>
          <leafValues>
            9.3062812089920044e-01 -1.7837521433830261e-01</leafValues></_>
        <_>
          <internalNodes>
            0 -1 63 -7.5667223427444696e-04</internalNodes>
          <leafValues>
            -6.4139258861541748e-01 3.3035928010940552e-01</leafValues></_>
        <_>
          <internalNodes>
            0 -1 3 -9.4489455223083496e-03</internalNodes>
          <leafValues>
            5.7567709684371948e-01 -3.5728013515472412e-01</leafValues></_></weakClassifiers></_>
    <!-- stage 6 -->
    <_>
      <maxWeakCount>5</maxWeakCount>
      <stageThreshold>-2.7770006656646729e-01</stageThreshold>
      <weakClassifiers>
        <_>
          <internalNodes>
            0 -1 35 -1.1792191863059998e-01</internalNodes>
          <leafValues>
            1. -2.2051282227039337e-01</leafValues></_>
        <_>
          <internalNodes>
            0 -1 94 -1.1930449400097132e-03</internalNodes>
          <leafValues>
            -9.2519181966781616e-01 2.6455348730087280e-01</leafValues></_>
        <_>
          <internalNodes>
            0 -1 89 7.2551565244793892e-04</internalNodes>
          <leafValues>
            -2.9661196470260620e-01 6.3789111375808716e-01</leafValues></_>
        <_>
          <internalNodes>
            0 -1 75 4.1303168982267380e-03</internalNodes>
          <leafValues>
            -3.3396384119987488e-01 6.2156462669372559e-01</leafValues></_>
        <_>
          <internalNodes>
            0 -1 86 -2.9019179055467248e-04</internalNodes>
          <leafValues>
            -6.2566798925399780e-01 3.3948579430580139e-01</leafValues></_></weakClassifiers></_>
    <!-- stage 7 -->
    <_>
      <maxWeakCount>6</maxWeakCount>
      <stageThreshold>-6.6021287441253662e-01</stageThreshold>
      <weakClassifiers>
        <_>
          <internalNodes>
            0 -1 51 -4.8256892710924149e-02</internalNodes>
          <leafValues>
            7.5903612375259399e-01 -4.1558441519737244e-01</leafValues></_>
        <_>
          <internalNodes>
            0 -1 1 1.5534168109297752e-02</internalNodes>
          <leafValues>
            3.3458968997001648e-01 -8.0615961551666260e-01</leafValues></_>
        <_>
          <internalNodes>
            0 -1 29 4.1492218151688576e-03</internalNodes>
          <leafValues>
            -3.5595613718032837e-01 6.3491606712341309e-01</leafValues></_>
        <_>
          <internalNodes>
            0 -1 68 4.0882866829633713e-02</internalNodes>
          <leafValues>
            -2.5922307372093201e-01 8.5136097669601440e-01</leafValues></_>
        <_>
          <internalNodes>
            0 -1 22 1.5123916091397405e-04</internalNodes>
          <leafValues>
            -3.5685619711875916e-01 5.7950752973556519e-01</leafValues></_>
        <_>
          <internalNodes>
            0 -1 74 6.4242856751661748e-05</internalNodes>
          <leafValues>
            -3.9366936683654785e-01 5.5491513013839722e-01</leafValues></_></weakClassifiers></_>
    <!-- stage 8 -->
    <_>
      <maxWeakCount>5</maxWeakCount>
      <stageThreshold>-6.8705397844314575e-01</stageThreshold>
      <weakClassifiers>
        <_>
          <internalNodes>
            0 -1 55 -3.2073847949504852e-02</internalNodes>
          <leafValues>
            8.2352942228317261e-01 -3.3727809786796570e-01</leafValues></_>
        <_>
          <internalNodes>
            0 -1 18 2.9557005036622286e-03</internalNodes>
          <leafValues>
            4.2410275340080261e-01 -6.3028365373611450e-01</leafValues></_>
        <_>
          <internalNodes>
            0 -1 61 5.2658878266811371e-03</internalNodes>
          <leafValues>
            3.7788894772529602e-01 -5.5817806720733643e-01</leafValues></_>
        <_>
          <internalNodes>
            0 -1 10 -4.6676904894411564e-03</internalNodes>
          <leafValues>
            3.7494754791259766e-01 -5.7930243015289307e-01</leafValues></_>
        <_>
          <internalNodes>
            0 -1 39 3.9790680602891371e-05</internalNodes>
          <leafValues>
            -4.6042528748512268e-01 4.6373835206031799e-01</leafValues></_></weakClassifiers></_>
    <!-- stage 9 -->
    <_>
      <maxWeakCount>7</maxWeakCount>
      <stageThreshold>-6.2419122457504272e-01</stageThreshold>
      <weakClassifiers>
        <_>
          <internalNodes>
            0 -1 4 -1.5097131952643394e-02</internalNodes>
          <leafValues>
            -9.0476191043853760e-01 3.2183909416198730e-01</leafValues></_>
        <_>
          <internalNodes>
            0 -1 59 -5.0099916756153107e-02</internalNodes>
          <leafValues>
            8.6376839876174927e-01 -3.9635562896728516e-01</leafValues></_>
        <_>
          <internalNodes>
            0 -1 69 -4.4321209192276001e-02</internalNodes>
          <leafValues>
            7.1748113632202148e-01 -2.3624786734580994e-01</leafValues></_>
        <_>
          <internalNodes>
            0 -1 88 -9.5199438510462642e-04</internalNodes>
          <leafValues>
            7.3391681909561157e-01 -2.2451889514923096e-01</leafValues></_>
        <_>
          <internalNodes>
            0 -1 16 -2.2469603572972119e-04</internalNodes>
          <leafValues>
            5.8012592792510986e-01 -2.9276093840599060e-01</leafValues></_>
        <_>
          <internalNodes>
            0 -1 32 3.9938269765116274e-05</internalNodes>
          <leafValues>
            -2.7365395426750183e-01 6.5357702970504761e-01</leafValues></_>
        <_>
          <internalNodes>
            0 -1 21 -4.0336489677429199e-02</internalNodes>
          <leafValues>
            5.3790569305419922e-01 -3.9537987112998962e-01</leafValues></_></weakClassifiers></_>
    <!-- stage 10 -->
    <_>
      <maxWeakCount>8</maxWeakCount>
      <stageThreshold>-3.1695422530174255e-01</stageThreshold>
      <weakClassifiers>
        <_>
          <internalNodes>
            0 -1 93 -1.3901083730161190e-03</internalNodes>
          <leafValues>
            6.0000002384185791e-01 -4.4525548815727234e-01</leafValues></_>
        <_>
          <internalNodes>
            0 -1 78 8.3096284652128816e-04</internalNodes>
          <leafValues>
            -2.6037812232971191e-01 7.8859812021255493e-01</leafValues></_>
        <_>
          <internalNodes>
            0 -1 71 -3.2402022043243051e-04</internalNodes>
          <leafValues>
            -4.4042101502418518e-01 5.0076121091842651e-01</leafValues></_>
        <_>
          <internalNodes>
            0 -1 13 1.0527927661314607e-03</internalNodes>
          <leafValues>
            -4.0125176310539246e-01 6.7767649888992310e-01</leafValues></_>
        <_>
          <internalNodes>
            0 -1 96 -6.4305507112294436e-04</internalNodes>
          <leafValues>
            4.3640580773353577e-01 -5.1069504022598267e-01</leafValues></_>
        <_>
          <internalNodes>
            0 -1 70 -1.5441870782524347e-03</internalNodes>
          <leafValues>
            6.6068726778030396e-01 -3.1828606128692627e-01</leafValues></_>
        <_>
          <internalNodes>
            0 -1 2 2.8898584423586726e-04</internalNodes>
          <leafValues>
            -4.5899859070777893e-01 5.1181995868682861e-01</leafValues></_>
        <_>
          <internalNodes>
            0 -1 45 1.3551150914281607e-03</internalNodes>
          <leafValues>
            -3.4076976776123047e-01 6.9023770093917847e-01</leafValues></_></weakClassifiers></_>
    <!-- stage 11 -->
    <_>
      <maxWeakCount>5</maxWeakCount>
      <stageThreshold>-6.0901659727096558e-01</stageThreshold>
      <weakClassifiers>
        <_>
          <internalNodes>
            0 -1 34 4.2254082858562469e-02</internalNodes>
          <leafValues>
            -4.1614907979965210e-01 8.6842107772827148e-01</leafValues></_>
        <_>
          <internalNodes>
            0 -1 49 2.5161218363791704e-03</internalNodes>
          <leafValues>
            -2.5456055998802185e-01 8.1711167097091675e-01</leafValues></_>
        <_>
          <internalNodes>
            0 -1 14 1.2553742155432701e-02</internalNodes>
          <leafValues>
            -3.7673592567443848e-01 7.2278660535812378e-01</leafValues></_>
        <_>
          <internalNodes>
            0 -1 50 5.8884620666503906e-03</internalNodes>
          <leafValues>
            -3.2310232520103455e-01 7.3796457052230835e-01</leafValues></_>
        <_>
          <internalNodes>
            0 -1 19 1.6977582126855850e-03</internalNodes>
          <leafValues>
            -2.7589437365531921e-01 7.6153129339218140e-01</leafValues></_></weakClassifiers></_>
    <!-- stage 12 -->
    <_>
      <maxWeakCount>7</maxWeakCount>
      <stageThreshold>-6.5059894323348999e-01</stageThreshold>
      <weakClassifiers>
        <_>
          <internalNodes>
            0 -1 23 -1.4109015464782715e-01</internalNodes>
          <leafValues>
            8.5454547405242920e-01 -2.6373627781867981e-01</leafValues></_>
        <_>
          <internalNodes>
            0 -1 87 -1.7739415168762207e-02</internalNodes>
          <leafValues>
            8.1861120462417603e-01 -1.9522568583488464e-01</leafValues></_>
        <_>
          <internalNodes>
            0 -1 64 1.1469652876257896e-02</internalNodes>
          <leafValues>
            -3.1053042411804199e-01 5.2995157241821289e-01</leafValues></_>
        <_>
          <internalNodes>
            0 -1 62 -1.3240659609436989e-03</internalNodes>
          <leafValues>
            -4.0841567516326904e-01 3.8135674595832825e-01</leafValues></_>
        <_>
          <internalNodes>
            0 -1 80 -1.5974443405866623e-02</internalNodes>
          <leafValues>
            7.3052972555160522e-01 -2.8897416591644287e-01</leafValues></_>
        <_>
          <internalNodes>
            0 -1 12 2.5023764465004206e-04</internalNodes>
          <leafValues>
            -3.7292799353599548e-01 4.3588569760322571e-01</leafValues></_>
        <_>
          <internalNodes>
            0 -1 77 8.1739661982282996e-04</internalNodes>
          <leafValues>
            3.8469737768173218e-01 -4.0937480330467224e-01</leafValues></_></weakClassifiers></_>
    <!-- stage 13 -->
    <_>
      <maxWeakCount>5</maxWeakCount>
      <stageThreshold>-5.9431588649749756e-01</stageThreshold>
      <weakClassifiers>
        <_>
          <internalNodes>
            0 -1 98 4.1228396003134549e-04</internalNodes>
          <leafValues>
            -4.4360902905464172e-01 5.5769228935241699e-01</leafValues></_>
        <_>
          <internalNodes>
            0 -1 73 2.0641822367906570e-02</internalNodes>
          <leafValues>
            2.6087799668312073e-01 -8.9690297842025757e-01</leafValues></_>
        <_>
          <internalNodes>
            0 -1 26 -2.0439030602574348e-02</internalNodes>
          <leafValues>
            -6.0151797533035278e-01 3.9301583170890808e-01</leafValues></_>
        <_>
          <internalNodes>
            0 -1 92 5.5215805768966675e-03</internalNodes>
          <leafValues>
            -3.3708620071411133e-01 7.8141158819198608e-01</leafValues></_>
        <_>
          <internalNodes>
            0 -1 44 2.9667851049453020e-04</internalNodes>
          <leafValues>
            -4.0980613231658936e-01 5.2701932191848755e-01</leafValues></_></weakClassifiers></_>
    <!-- stage 14 -->
    <_>
      <maxWeakCount>6</maxWeakCount>
      <stageThreshold>-6.6749274730682373e-01</stageThreshold>
      <weakClassifiers>
        <_>
          <internalNodes>
            0 -1 95 4.0939925238490105e-03</internalNodes>
          <leafValues>
            -3.5802468657493591e-01 7.5999999046325684e-01</leafValues></_>
        <_>
          <internalNodes>
            0 -1 37 -4.1447118856012821e-03</internalNodes>
          <leafValues>
            -5.1194202899932861e-01 4.5683169364929199e-01</leafValues></_>
        <_>
          <internalNodes>
            0 -1 24 1.3688048347830772e-03</internalNodes>
          <leafValues>
            5.6072926521301270e-01 -4.6847680211067200e-01</leafValues></_>
        <_>
          <internalNodes>
            0 -1 65 -1.0308781638741493e-03</internalNodes>
          <leafValues>
            9.5457673072814941e-01 -3.3875909447669983e-01</leafValues></_>
        <_>
          <internalNodes>
            0 -1 30 1.2499188305810094e-03</internalNodes>
          <leafValues>
            -4.0215513110160828e-01 7.0603400468826294e-01</leafValues></_>
        <_>
          <internalNodes>
            0 -1 0 2.2732862271368504e-03</internalNodes>
          <leafValues>
            4.4475880265235901e-01 -6.6509783267974854e-01</leafValues></_></weakClassifiers></_>
    <!-- stage 15 -->
    <_>
      <maxWeakCount>5</maxWeakCount>
      <stageThreshold>-3.0698776245117188e-01</stageThreshold>
      <weakClassifiers>
        <_>
          <internalNodes>
            0 -1 67 2.1105434279888868e-04</internalNodes>
          <leafValues>
            1. -3.9181286096572876e-01</leafValues></_>
        <_>
          <internalNodes>
            0 -1 91 -1.2335865176282823e-04</internalNodes>
          <leafValues>
            -5.7782405614852905e-01 7.3242825269699097e-01</leafValues></_>
        <_>
          <internalNodes>
            0 -1 11 1.0476641356945038e-02</internalNodes>
          <leafValues>
            5.8399945497512817e-01 -8.3067572116851807e-01</leafValues></_>
        <_>
          <internalNodes>
            0 -1 15 9.2089649115223438e-05</internalNodes>
          <leafValues>
            6.8718785047531128e-01 -6.4302825927734375e-01</leafValues></_>
        <_>
          <internalNodes>
            0 -1 5 -3.0696548492414877e-05</internalNodes>
          <leafValues>
            -4.9497652053833008e-01 8.2610082626342773e-01</leafValues></_></weakClassifiers></_></stages>
  <features>
    <_>
      <rects>
        <_>
          0 0 2 24 -1.</_>
        <_>
          0 0 1 12 2.</_>
        <_>
          1 12 1 12 2.</_></rects>
      <tilted>0</tilted></_>
    <_>
      <rects>
        <_>
          0 0 20 1 -1.</_>
        <_>
          10 0 10 1 2.</_></rects>
      <tilted>0</tilted></_>
    <_>
      <rects>
        <_>
          0 0 13 2 -1.</_>
        <_>
          0 1 13 1 2.</_></rects>
      <tilted>0</tilted></_>
    <_>
      <rects>
        <_>
          0 1 21 22 -1.</_>
        <_>
          7 1 7 22 3.</_></rects>
      <tilted>0</tilted></_>
    <_>
      <rects>
        <_>
          0 3 2 9 -1.</_>
        <_>
          0 6 2 3 3.</_></rects>
      <tilted>0</tilted></_>
    <_>
      <rects>
        <_>
          0 7 8 2 -1.</_>
        <_>
          0 7 4 1 2.</_>
        <_>
          4 8 4 1 2.</_></rects>
      <tilted>0</tilted></_>
    <_>
      <rects>
        <_>
          0 8 18 1 -1.</_>
        <_>
          9 8 9 1 2.</_></rects>
      <tilted>0</tilted></_>
    <_>
      <rects>
        <_>
          0 13 22 8 -1.</_>
        <_>
          0 17 22 4 2.</_></rects>
      <tilted>0</tilted></_>
    <_>
      <rects>
        <_>
          0 16 1 6 -1.</_>
        <_>
          0 19 1 3 2.</_></rects>
      <tilted>0</tilted></_>
    <_>
      <rects>
        <_>
          0 20 17 2 -1.</_>
        <_>
          0 21 17 1 2.</_></rects>
      <tilted>0</tilted></_>
    <_>
      <rects>
        <_>
          1 1 21 10 -1.</_>
        <_>
          1 6 21 5 2.</_></rects>
      <tilted>0</tilted></_>
    <_>
      <rects>
        <_>
          1 5 1 12 -1.</_>
        <_>
          1 9 1 4 3.</_></rects>
      <tilted>0</tilted></_>
    <_>
      <rects>
        <_>
          1 11 2 8 -1.</_>
        <_>
          2 11 1 8 2.</_></rects>
      <tilted>0</tilted></_>
    <_>
      <rects>
        <_>
          1 14 6 1 -1.</_>
        <_>
          4 14 3 1 2.</_></rects>
      <tilted>0</tilted></_>
    <_>
      <rects>
        <_>
          1 14 20 8 -1.</_>
        <_>
          1 14 10 4 2.</_>
        <_>
          11 18 10 4 2.</_></rects>
      <tilted>0</tilted></_>
    <_>
      <rects>
        <_>
          1 16 4 6 -1.</_>
        <_>
          1 19 4 3 2.</_></rects>
      <tilted>0</tilted></_>
    <_>
      <rects>
        <_>
          1 20 3 4 -1.</_>
        <_>
          2 20 1 4 3.</_></rects>
      <tilted>0</tilted></_>
    <_>
      <rects>
        <_>
          2 3 8 21 -1.</_>
        <_>
          6 3 4 21 2.</_></rects>
      <tilted>0</tilted></_>
    <_>
      <rects>
        <_>
          2 22 12 2 -1.</_>
        <_>
          6 22 4 2 3.</_></rects>
      <tilted>0</tilted></_>
    <_>
      <rects>
        <_>
          2 22 14 2 -1.</_>
        <_>
          2 23 14 1 2.</_></rects>
      <tilted>0</tilted></_>
    <_>
      <rects>
        <_>
          3 0 2 1 -1.</_>
        <_>
          4 0 1 1 2.</_></rects>
      <tilted>0</tilted></_>
    <_>
      <rects>
        <_>
          3 4 8 20 -1.</_>
        <_>
          3 14 8 10 2.</_></rects>
      <tilted>0</tilted></_>
    <_>
      <rects>
        <_>
          3 7 4 2 -1.</_>
        <_>
          3 7 2 1 2.</_>
        <_>
          5 8 2 1 2.</_></rects>
      <tilted>0</tilted></_>
    <_>
      <rects>
        <_>
          3 12 15 10 -1.</_>
        <_>
          3 17 15 5 2.</_></rects>
      <tilted>0</tilted></_>
    <_>
      <rects>
        <_>
          4 1 16 2 -1.</_>
        <_>
          4 1 8 1 2.</_>
        <_>
          12 2 8 1 2.</_></rects>
      <tilted>0</tilted></_>
    <_>
      <rects>
        <_>
          4 1 16 2 -1.</_>
        <_>
          12 1 8 2 2.</_></rects>
      <tilted>0</tilted></_>
    <_>
      <rects>
        <_>
          4 2 12 17 -1.</_>
        <_>
          8 2 4 17 3.</_></rects>
      <tilted>0</tilted></_>
    <_>
      <rects>
        <_>
          4 2 16 6 -1.</_>
        <_>
          4 4 16 2 3.</_></rects>
      <tilted>0</tilted></_>
    <_>
      <rects>
        <_>
          4 5 11 3 -1.</_>
        <_>
          4 6 11 1 3.</_></rects>
      <tilted>0</tilted></_>
    <_>
      <rects>
        <_>
          4 6 8 3 -1.</_>
        <_>
          8 6 4 3 2.</_></rects>
      <tilted>0</tilted></_>
    <_>
      <rects>
        <_>
          4 15 6 7 -1.</_>
        <_>
          7 15 3 7 2.</_></rects>
      <tilted>0</tilted></_>
    <_>
      <rects>
        <_>
          4 15 11 8 -1.</_>
        <_>
          4 19 11 4 2.</_></rects>
      <tilted>0</tilted></_>
    <_>
      <rects>
        <_>
          4 22 2 2 -1.</_>
        <_>
          5 22 1 2 2.</_></rects>
      <tilted>0</tilted></_>
    <_>
      <rects>
        <_>
          5 3 18 3 -1.</_>
        <_>
          11 3 6 3 3.</_></rects>
      <tilted>0</tilted></_>
    <_>
      <rects>
        <_>
          5 9 15 9 -1.</_>
        <_>
          5 12 15 3 3.</_></rects>
      <tilted>0</tilted></_>
    <_>
      <rects>
        <_>
          5 12 9 10 -1.</_>
        <_>
          5 17 9 5 2.</_></rects>
      <tilted>0</tilted></_>
    <_>
      <rects>
        <_>
          5 21 14 3 -1.</_>
        <_>
          5 22 14 1 3.</_></rects>
      <tilted>0</tilted></_>
    <_>
      <rects>
        <_>
          5 22 10 2 -1.</_>
        <_>
          10 22 5 2 2.</_></rects>
      <tilted>0</tilted></_>
    <_>
      <rects>
        <_>
          6 2 15 15 -1.</_>
        <_>
          11 2 5 15 3.</_></rects>
      <tilted>0</tilted></_>
    <_>
      <rects>
        <_>
          6 4 4 3 -1.</_>
        <_>
          8 4 2 3 2.</_></rects>
      <tilted>0</tilted></_>
    <_>
      <rects>
        <_>
          6 4 6 3 -1.</_>
        <_>
          8 4 2 3 3.</_></rects>
      <tilted>0</tilted></_>
    <_>
      <rects>
        <_>
          6 5 2 6 -1.</_>
        <_>
          6 7 2 2 3.</_></rects>
      <tilted>0</tilted></_>
    <_>
      <rects>
        <_>
          6 7 3 8 -1.</_>
        <_>
          7 7 1 8 3.</_></rects>
      <tilted>0</tilted></_>
    <_>
      <rects>
        <_>
          6 17 14 2 -1.</_>
        <_>
          6 17 7 1 2.</_>
        <_>
          13 18 7 1 2.</_></rects>
      <tilted>0</tilted></_>
    <_>
      <rects>
        <_>
          7 1 2 4 -1.</_>
        <_>
          8 1 1 4 2.</_></rects>
      <tilted>0</tilted></_>
    <_>
      <rects>
        <_>
          7 1 6 2 -1.</_>
        <_>
          7 1 3 1 2.</_>
        <_>
          10 2 3 1 2.</_></rects>
      <tilted>0</tilted></_>
    <_>
      <rects>
        <_>
          7 1 6 9 -1.</_>
        <_>
          10 1 3 9 2.</_></rects>
      <tilted>0</tilted></_>
    <_>
      <rects>
        <_>
          7 13 14 8 -1.</_>
        <_>
          7 17 14 4 2.</_></rects>
      <tilted>0</tilted></_>
    <_>
      <rects>
        <_>
          7 14 2 3 -1.</_>
        <_>
          7 15 2 1 3.</_></rects>
      <tilted>0</tilted></_>
    <_>
      <rects>
        <_>
          7 18 8 6 -1.</_>
        <_>
          7 20 8 2 3.</_></rects>
      <tilted>0</tilted></_>
    <_>
      <rects>
        <_>
          8 0 6 9 -1.</_>
        <_>
          11 0 3 9 2.</_></rects>
      <tilted>0</tilted></_>
    <_>
      <rects>
        <_>
          8 1 14 10 -1.</_>
        <_>
          8 6 14 5 2.</_></rects>
      <tilted>0</tilted></_>
    <_>
      <rects>
        <_>
          8 5 7 2 -1.</_>
        <_>
          8 6 7 1 2.</_></rects>
      <tilted>0</tilted></_>
    <_>
      <rects>
        <_>
          8 10 1 3 -1.</_>
        <_>
          8 11 1 1 3.</_></rects>
      <tilted>0</tilted></_>
    <_>
      <rects>
        <_>
          8 10 15 6 -1.</_>
        <_>
          8 12 15 2 3.</_></rects>
      <tilted>0</tilted></_>
    <_>
      <rects>
        <_>
          8 14 5 10 -1.</_>
        <_>
          8 19 5 5 2.</_></rects>
      <tilted>0</tilted></_>
    <_>
      <rects>
        <_>
          9 0 2 9 -1.</_>
        <_>
          9 3 2 3 3.</_></rects>
      <tilted>0</tilted></_>
    <_>
      <rects>
        <_>
          9 3 15 20 -1.</_>
        <_>
          9 13 15 10 2.</_></rects>
      <tilted>0</tilted></_>
    <_>
      <rects>
        <_>
          9 11 3 12 -1.</_>
        <_>
          9 17 3 6 2.</_></rects>
      <tilted>0</tilted></_>
    <_>
      <rects>
        <_>
          9 14 7 10 -1.</_>
        <_>
          9 19 7 5 2.</_></rects>
      <tilted>0</tilted></_>
    <_>
      <rects>
        <_>
          9 15 4 9 -1.</_>
        <_>
          11 15 2 9 2.</_></rects>
      <tilted>0</tilted></_>
    <_>
      <rects>
        <_>
          10 1 6 12 -1.</_>
        <_>
          10 1 3 6 2.</_>
        <_>
          13 7 3 6 2.</_></rects>
      <tilted>0</tilted></_>
    <_>
      <rects>
        <_>
          10 11 6 2 -1.</_>
        <_>
          13 11 3 2 2.</_></rects>
      <tilted>0</tilted></_>
    <_>
      <rects>
        <_>
          10 17 3 2 -1.</_>
        <_>
          11 17 1 2 3.</_></rects>
      <tilted>0</tilted></_>
    <_>
      <rects>
        <_>
          10 17 14 5 -1.</_>
        <_>
          17 17 7 5 2.</_></rects>
      <tilted>0</tilted></_>
    <_>
      <rects>
        <_>
          11 1 3 7 -1.</_>
        <_>
          12 1 1 7 3.</_></rects>
      <tilted>0</tilted></_>
    <_>
      <rects>
        <_>
          11 1 11 6 -1.</_>
        <_>
          11 3 11 2 3.</_></rects>
      <tilted>0</tilted></_>
    <_>
      <rects>
        <_>
          11 3 3 11 -1.</_>
        <_>
          12 3 1 11 3.</_></rects>
      <tilted>0</tilted></_>
    <_>
      <rects>
        <_>
          11 10 12 9 -1.</_>
        <_>
          11 13 12 3 3.</_></rects>
      <tilted>0</tilted></_>
    <_>
      <rects>
        <_>
          11 12 6 12 -1.</_>
        <_>
          11 16 6 4 3.</_></rects>
      <tilted>0</tilted></_>
    <_>
      <rects>
        <_>
          11 15 2 6 -1.</_>
        <_>
          11 17 2 2 3.</_></rects>
      <tilted>0</tilted></_>
    <_>
      <rects>
        <_>
          12 0 2 4 -1.</_>
        <_>
          13 0 1 4 2.</_></rects>
      <tilted>0</tilted></_>
    <_>
      <rects>
        <_>
          12 6 7 18 -1.</_>
        <_>
          12 12 7 6 3.</_></rects>
      <tilted>0</tilted></_>
    <_>
      <rects>
        <_>
          13 0 10 3 -1.</_>
        <_>
          18 0 5 3 2.</_></rects>
      <tilted>0</tilted></_>
    <_>
      <rects>
        <_>
          13 4 2 1 -1.</_>
        <_>
          14 4 1 1 2.</_></rects>
      <tilted>0</tilted></_>
    <_>
      <rects>
        <_>
          13 7 9 4 -1.</_>
        <_>
          16 7 3 4 3.</_></rects>
      <tilted>0</tilted></_>
    <_>
      <rects>
        <_>
          14 9 2 15 -1.</_>
        <_>
          14 14 2 5 3.</_></rects>
      <tilted>0</tilted></_>
    <_>
      <rects>
        <_>
          14 11 10 2 -1.</_>
        <_>
          14 11 5 1 2.</_>
        <_>
          19 12 5 1 2.</_></rects>
      <tilted>0</tilted></_>
    <_>
      <rects>
        <_>
          14 15 3 5 -1.</_>
        <_>
          15 15 1 5 3.</_></rects>
      <tilted>0</tilted></_>
    <_>
      <rects>
        <_>
          15 7 8 12 -1.</_>
        <_>
          15 11 8 4 3.</_></rects>
      <tilted>0</tilted></_>
    <_>
      <rects>
        <_>
          15 8 6 15 -1.</_>
        <_>
          17 8 2 15 3.</_></rects>
      <tilted>0</tilted></_>
    <_>
      <rects>
        <_>
          15 12 3 7 -1.</_>
        <_>
          16 12 1 7 3.</_></rects>
      <tilted>0</tilted></_>
    <_>
      <rects>
        <_>
          16 0 6 1 -1.</_>
        <_>
          18 0 2 1 3.</_></rects>
      <tilted>0</tilted></_>
    <_>
      <rects>
        <_>
          16 7 4 2 -1.</_>
        <_>
          16 8 4 1 2.</_></rects>
      <tilted>0</tilted></_>
    <_>
      <rects>
        <_>
          16 13 8 2 -1.</_>
        <_>
          20 13 4 2 2.</_></rects>
      <tilted>0</tilted></_>
    <_>
      <rects>
        <_>
          16 18 8 5 -1.</_>
        <_>
          20 18 4 5 2.</_></rects>
      <tilted>0</tilted></_>
    <_>
      <rects>
        <_>
          16 23 4 1 -1.</_>
        <_>
          18 23 2 1 2.</_></rects>
      <tilted>0</tilted></_>
    <_>
      <rects>
        <_>
          17 2 6 20 -1.</_>
        <_>
          19 2 2 20 3.</_></rects>
      <tilted>0</tilted></_>
    <_>
      <rects>
        <_>
          17 5 3 4 -1.</_>
        <_>
          18 5 1 4 3.</_></rects>
      <tilted>0</tilted></_>
    <_>
      <rects>
        <_>
          17 19 4 2 -1.</_>
        <_>
          17 19 2 1 2.</_>
        <_>
          19 20 2 1 2.</_></rects>
      <tilted>0</tilted></_>
    <_>
      <rects>
        <_>
          18 7 3 13 -1.</_>
        <_>
          19 7 1 13 3.</_></rects>
      <tilted>0</tilted></_>
    <_>
      <rects>
        <_>
          18 14 6 6 -1.</_>
        <_>
          18 14 3 3 2.</_>
        <_>
          21 17 3 3 2.</_></rects>
      <tilted>0</tilted></_>
    <_>
      <rects>
        <_>
          19 4 4 6 -1.</_>
        <_>
          21 4 2 6 2.</_></rects>
      <tilted>0</tilted></_>
    <_>
      <rects>
        <_>
          19 11 1 10 -1.</_>
        <_>
          19 16 1 5 2.</_></rects>
      <tilted>0</tilted></_>
    <_>
      <rects>
        <_>
          19 22 4 2 -1.</_>
        <_>
          19 23 4 1 2.</_></rects>
      <tilted>0</tilted></_>
    <_>
      <rects>
        <_>
          20 17 4 5 -1.</_>
        <_>
          22 17 2 5 2.</_></rects>
      <tilted>0</tilted></_>
    <_>
      <rects>
        <_>
          21 0 1 14 -1.</_>
        <_>
          21 7 1 7 2.</_></rects>
      <tilted>0</tilted></_>
    <_>
      <rects>
        <_>
          22 15 2 6 -1.</_>
        <_>
          23 15 1 6 2.</_></rects>
      <tilted>0</tilted></_>
    <_>
      <rects>
        <_>
          22 15 2 7 -1.</_>
        <_>
          23 15 1 7 2.</_></rects>
      <tilted>0</tilted></_>
    <_>
      <rects>
        <_>
          23 1 1 16 -1.</_>
        <_>
          23 9 1 8 2.</_></rects>
      <tilted>0</tilted></_></features></cascade>
</opencv_storage>
